<?xml version="1.0"?>
<opencv_storage>
<cascade>
  <stageType>BOOST</stageType>
  <featureType>HAAR</featureType>
  <height>24</height>
  <width>24</width>
  <stageParams>
    <boostType>GAB</boostType>
    <minHitRate>9.9500000476837158e-01</minHitRate>
    <maxFalseAlarm>5.0000000000000000e-01</maxFalseAlarm>
    <weightTrimRate>9.4999998807907104e-01</weightTrimRate>
    <maxDepth>1</maxDepth>
    <maxWeakCount>100</maxWeakCount></stageParams>
  <featureParams>
    <maxCatCount>0</maxCatCount>
    <featSize>1</featSize>
    <mode>BASIC</mode></featureParams>
  <stageNum>14</stageNum>
  <stages>
    <!-- stage 0 -->
    <_>
      <maxWeakCount>3</maxWeakCount>
      <stageThreshold>-1.4466681480407715e+00</stageThreshold>
      <weakClassifiers>
        <_>
          <internalNodes>
            0 -1 29 3.8303089141845703e-01</internalNodes>
          <leafValues>
            -9.6211367845535278e-01 6.9523811340332031e-01</leafValues></_>
        <_>
          <internalNodes>
            0 -1 8 2.8599977493286133e-01</internalNodes>
          <leafValues>
            -9.7900450229644775e-01 6.3271325826644897e-01</leafValues></_>
        <_>
          <internalNodes>
            0 -1 37 2.5120201706886292e-01</internalNodes>
          <leafValues>
            -9.6683311462402344e-01 4.9444994330406189e-01</leafValues></_></weakClassifiers></_>
    <!-- stage 1 -->
    <_>
      <maxWeakCount>3</maxWeakCount>
      <stageThreshold>-1.5495208501815796e+00</stageThreshold>
      <weakClassifiers>
        <_>
          <internalNodes>
            0 -1 11 5.1263675093650818e-02</internalNodes>
          <leafValues>
            -9.6602970361709595e-01 1.0843373835086823e-01</leafValues></_>
        <_>
          <internalNodes>
            0 -1 9 -3.5750959068536758e-02</internalNodes>
          <leafValues>
            3.8088390231132507e-01 -8.9185124635696411e-01</leafValues></_>
        <_>
          <internalNodes>
            0 -1 52 -1.1967866122722626e-01</internalNodes>
          <leafValues>
            3.3747795224189758e-01 -9.6437501907348633e-01</leafValues></_></weakClassifiers></_>
    <!-- stage 2 -->
    <_>
      <maxWeakCount>4</maxWeakCount>
      <stageThreshold>-1.4674154520034790e+00</stageThreshold>
      <weakClassifiers>
        <_>
          <internalNodes>
            0 -1 30 5.4268717765808105e-01</internalNodes>
          <leafValues>
            -9.2534381151199341e-01 5.5555558204650879e-01</leafValues></_>
        <_>
          <internalNodes>
            0 -1 4 3.5006612539291382e-01</internalNodes>
          <leafValues>
            -9.8383420705795288e-01 7.9933524131774902e-02</leafValues></_>
        <_>
          <internalNodes>
            0 -1 7 1.3322272896766663e-01</internalNodes>
          <leafValues>
            -7.9836744070053101e-01 3.1103825569152832e-01</leafValues></_>
        <_>
          <internalNodes>
            0 -1 36 1.0573620349168777e-01</internalNodes>
          <leafValues>
            -9.3304342031478882e-01 3.2839104533195496e-01</leafValues></_></weakClassifiers></_>
    <!-- stage 3 -->
    <_>
      <maxWeakCount>3</maxWeakCount>
      <stageThreshold>-1.5899678468704224e+00</stageThreshold>
      <weakClassifiers>
        <_>
          <internalNodes>
            0 -1 31 7.1205973625183105e-01</internalNodes>
          <leafValues>
            -8.5835695266723633e-01 3.4693878889083862e-01</leafValues></_>
        <_>
          <internalNodes>
            0 -1 3 3.4756392240524292e-01</internalNodes>
          <leafValues>
            -9.3913275003433228e-01 1.3148474693298340e-01</leafValues></_>
        <_>
          <internalNodes>
            0 -1 0 1.4927964657545090e-03</internalNodes>
          <leafValues>
            2.0752181112766266e-01 -9.7732293605804443e-01</leafValues></_></weakClassifiers></_>
    <!-- stage 4 -->
    <_>
      <maxWeakCount>4</maxWeakCount>
      <stageThreshold>-1.8875249624252319e+00</stageThreshold>
      <weakClassifiers>
        <_>
          <internalNodes>
            0 -1 31 5.9060949087142944e-01</internalNodes>
          <leafValues>
            -9.1044777631759644e-01 -2.2352941334247589e-01</leafValues></_>
        <_>
          <internalNodes>
            0 -1 5 -3.1554754823446274e-03</internalNodes>
          <leafValues>
            -9.3121641874313354e-01 1.5494263172149658e-01</leafValues></_>
        <_>
          <internalNodes>
            0 -1 2 2.9935592412948608e-01</internalNodes>
          <leafValues>
            -9.2369884252548218e-01 2.0608872175216675e-01</leafValues></_>
        <_>
          <internalNodes>
            0 -1 43 -7.6883420348167419e-02</internalNodes>
          <leafValues>
            1.9091977179050446e-01 -9.6535193920135498e-01</leafValues></_></weakClassifiers></_>
    <!-- stage 5 -->
    <_>
      <maxWeakCount>5</maxWeakCount>
      <stageThreshold>-1.4928022623062134e+00</stageThreshold>
      <weakClassifiers>
        <_>
          <internalNodes>
            0 -1 53 -1.5221463516354561e-02</internalNodes>
          <leafValues>
            1.2987012974917889e-02 -8.6614936590194702e-01</leafValues></_>
        <_>
          <internalNodes>
            0 -1 63 -1.5276562189683318e-03</internalNodes>
          <leafValues>
            -9.7287034988403320e-01 2.0224226173013449e-03</leafValues></_>
        <_>
          <internalNodes>
            0 -1 22 -1.6248596366494894e-03</internalNodes>
          <leafValues>
            -1. 1.5407894551753998e-01</leafValues></_>
        <_>
          <internalNodes>
            0 -1 26 3.0317450873553753e-03</internalNodes>
          <leafValues>
            2.9641303420066833e-01 -9.5301777124404907e-01</leafValues></_>
        <_>
          <internalNodes>
            0 -1 26 -8.6113694123923779e-04</internalNodes>
          <leafValues>
            -9.4898271560668945e-01 1.7026355862617493e-01</leafValues></_></weakClassifiers></_>
    <!-- stage 6 -->
    <_>
      <maxWeakCount>5</maxWeakCount>
      <stageThreshold>-1.4666707515716553e+00</stageThreshold>
      <weakClassifiers>
        <_>
          <internalNodes>
            0 -1 34 4.9876160919666290e-02</internalNodes>
          <leafValues>
            -8.7339270114898682e-01 -9.2783503234386444e-02</leafValues></_>
        <_>
          <internalNodes>
            0 -1 42 -8.9534424245357513e-02</internalNodes>
          <leafValues>
            -2.4085119366645813e-02 -8.6264795064926147e-01</leafValues></_>
        <_>
          <internalNodes>
            0 -1 15 -1.8896736437454820e-03</internalNodes>
          <leafValues>
            -9.3134027719497681e-01 1.6821998357772827e-01</leafValues></_>
        <_>
          <internalNodes>
            0 -1 62 -3.3041876740753651e-03</internalNodes>
          <leafValues>
            -9.6006166934967041e-01 2.3846685886383057e-01</leafValues></_>
        <_>
          <internalNodes>
            0 -1 61 8.3659362280741334e-04</internalNodes>
          <leafValues>
            2.2264881432056427e-01 -9.3644583225250244e-01</leafValues></_></weakClassifiers></_>
    <!-- stage 7 -->
    <_>
      <maxWeakCount>4</maxWeakCount>
      <stageThreshold>-1.5826998949050903e+00</stageThreshold>
      <weakClassifiers>
        <_>
          <internalNodes>
            0 -1 32 8.2837551832199097e-02</internalNodes>
          <leafValues>
            -8.7263679504394531e-01 -1.4563107490539551e-01</leafValues></_>
        <_>
          <internalNodes>
            0 -1 60 -3.4297662787139416e-03</internalNodes>
          <leafValues>
            -9.5299762487411499e-01 -1.0355805605649948e-01</leafValues></_>
        <_>
          <internalNodes>
            0 -1 10 1.6866079531610012e-03</internalNodes>
          <leafValues>
            1.2761515378952026e-01 -1.</leafValues></_>
        <_>
          <internalNodes>
            0 -1 1 1.2305714935064316e-01</internalNodes>
          <leafValues>
            -7.3412024974822998e-01 2.5383403897285461e-01</leafValues></_></weakClassifiers></_>
    <!-- stage 8 -->
    <_>
      <maxWeakCount>6</maxWeakCount>
      <stageThreshold>-1.9902079105377197e+00</stageThreshold>
      <weakClassifiers>
        <_>
          <internalNodes>
            0 -1 13 5.0534501671791077e-02</internalNodes>
          <leafValues>
            -8.4629803895950317e-01 2.6829269528388977e-01</leafValues></_>
        <_>
          <internalNodes>
            0 -1 45 1.4066779613494873e-01</internalNodes>
          <leafValues>
            -6.1218625307083130e-01 3.4073880314826965e-01</leafValues></_>
        <_>
          <internalNodes>
            0 -1 54 -8.5996657609939575e-02</internalNodes>
          <leafValues>
            2.9649454355239868e-01 -6.3714826107025146e-01</leafValues></_>
        <_>
          <internalNodes>
            0 -1 50 6.9321642513386905e-05</internalNodes>
          <leafValues>
            2.7104628086090088e-01 -7.6442337036132813e-01</leafValues></_>
        <_>
          <internalNodes>
            0 -1 28 -2.4124819319695234e-03</internalNodes>
          <leafValues>
            -1. 1.7293274402618408e-01</leafValues></_>
        <_>
          <internalNodes>
            0 -1 49 5.0471678376197815e-02</internalNodes>
          <leafValues>
            -3.3855441212654114e-01 5.4908043146133423e-01</leafValues></_></weakClassifiers></_>
    <!-- stage 9 -->
    <_>
      <maxWeakCount>6</maxWeakCount>
      <stageThreshold>-1.9534003734588623e+00</stageThreshold>
      <weakClassifiers>
        <_>
          <internalNodes>
            0 -1 19 5.5031917989253998e-02</internalNodes>
          <leafValues>
            -8.3733826875686646e-01 5.3846156597137451e-01</leafValues></_>
        <_>
          <internalNodes>
            0 -1 56 8.5035548545420170e-04</internalNodes>
          <leafValues>
            -8.5434776544570923e-01 1.2796649709343910e-02</leafValues></_>
        <_>
          <internalNodes>
            0 -1 16 9.8223730921745300e-02</internalNodes>
          <leafValues>
            -6.5227031707763672e-01 2.2123643755912781e-01</leafValues></_>
        <_>
          <internalNodes>
            0 -1 44 1.6495734453201294e-01</internalNodes>
          <leafValues>
            -8.1561213731765747e-01 2.2987356781959534e-01</leafValues></_>
        <_>
          <internalNodes>
            0 -1 39 -7.6791693572886288e-05</internalNodes>
          <leafValues>
            -8.9196819067001343e-01 1.8774333596229553e-01</leafValues></_>
        <_>
          <internalNodes>
            0 -1 23 -3.1895987689495087e-02</internalNodes>
          <leafValues>
            1.4491796493530273e-01 -9.1601556539535522e-01</leafValues></_></weakClassifiers></_>
    <!-- stage 10 -->
    <_>
      <maxWeakCount>5</maxWeakCount>
      <stageThreshold>-1.5474823713302612e+00</stageThreshold>
      <weakClassifiers>
        <_>
          <internalNodes>
            0 -1 25 1.3705595396459103e-02</internalNodes>
          <leafValues>
            -8.3364140987396240e-01 3.8461539149284363e-01</leafValues></_>
        <_>
          <internalNodes>
            0 -1 38 -1.6565150581300259e-03</internalNodes>
          <leafValues>
            4.4389167428016663e-01 -5.4907125234603882e-01</leafValues></_>
        <_>
          <internalNodes>
            0 -1 6 1.8324255943298340e-01</internalNodes>
          <leafValues>
            -8.9699482917785645e-01 1.9337917864322662e-01</leafValues></_>
        <_>
          <internalNodes>
            0 -1 51 -4.9900023441296071e-05</internalNodes>
          <leafValues>
            1.7372757196426392e-01 -7.7353549003601074e-01</leafValues></_>
        <_>
          <internalNodes>
            0 -1 35 -8.7994467467069626e-03</internalNodes>
          <leafValues>
            4.6542280912399292e-01 -4.3446531891822815e-01</leafValues></_></weakClassifiers></_>
    <!-- stage 11 -->
    <_>
      <maxWeakCount>7</maxWeakCount>
      <stageThreshold>-1.4271757602691650e+00</stageThreshold>
      <weakClassifiers>
        <_>
          <internalNodes>
            0 -1 24 -1.2282745912671089e-02</internalNodes>
          <leafValues>
            2.5581395626068115e-01 -8.4788733720779419e-01</leafValues></_>
        <_>
          <internalNodes>
            0 -1 33 -2.4135652929544449e-03</internalNodes>
          <leafValues>
            5.0934809446334839e-01 -5.2812653779983521e-01</leafValues></_>
        <_>
          <internalNodes>
            0 -1 59 -5.5782182607799768e-04</internalNodes>
          <leafValues>
            -8.4701824188232422e-01 1.9982326030731201e-01</leafValues></_>
        <_>
          <internalNodes>
            0 -1 40 2.7665111701935530e-04</internalNodes>
          <leafValues>
            2.1865734457969666e-01 -7.6011705398559570e-01</leafValues></_>
        <_>
          <internalNodes>
            0 -1 40 -3.8846657844260335e-05</internalNodes>
          <leafValues>
            -7.7267390489578247e-01 2.4927379190921783e-01</leafValues></_>
        <_>
          <internalNodes>
            0 -1 41 -8.6749729234725237e-05</internalNodes>
          <leafValues>
            -8.5406297445297241e-01 1.7691880464553833e-01</leafValues></_>
        <_>
          <internalNodes>
            0 -1 55 -4.4284599425736815e-05</internalNodes>
          <leafValues>
            1.5100644528865814e-01 -9.7932839393615723e-01</leafValues></_></weakClassifiers></_>
    <!-- stage 12 -->
    <_>
      <maxWeakCount>6</maxWeakCount>
      <stageThreshold>-1.9938989877700806e+00</stageThreshold>
      <weakClassifiers>
        <_>
          <internalNodes>
            0 -1 27 -1.7573991790413857e-02</internalNodes>
          <leafValues>
            1. -8.3823531866073608e-01</leafValues></_>
        <_>
          <internalNodes>
            0 -1 12 -2.8116083703935146e-03</internalNodes>
          <leafValues>
            4.0343508124351501e-01 -5.8555006980895996e-01</leafValues></_>
        <_>
          <internalNodes>
            0 -1 47 3.8246569602051750e-05</internalNodes>
          <leafValues>
            2.8612613677978516e-01 -7.3755645751953125e-01</leafValues></_>
        <_>
          <internalNodes>
            0 -1 46 -1.6299130220431834e-04</internalNodes>
          <leafValues>
            -8.5928410291671753e-01 2.0751665532588959e-01</leafValues></_>
        <_>
          <internalNodes>
            0 -1 21 -6.1163596808910370e-02</internalNodes>
          <leafValues>
            6.1286264657974243e-01 -3.5303622484207153e-01</leafValues></_>
        <_>
          <internalNodes>
            0 -1 48 3.1297220266424119e-04</internalNodes>
          <leafValues>
            3.1537193059921265e-01 -7.1072024106979370e-01</leafValues></_></weakClassifiers></_>
    <!-- stage 13 -->
    <_>
      <maxWeakCount>6</maxWeakCount>
      <stageThreshold>-1.8667643070220947e+00</stageThreshold>
      <weakClassifiers>
        <_>
          <internalNodes>
            0 -1 20 4.4768499210476875e-03</internalNodes>
          <leafValues>
            -8.4842884540557861e-01 1.</leafValues></_>
        <_>
          <internalNodes>
            0 -1 14 -2.9446824919432402e-04</internalNodes>
          <leafValues>
            5.5576366186141968e-01 -6.2853634357452393e-01</leafValues></_>
        <_>
          <internalNodes>
            0 -1 17 1.1167204007506371e-02</internalNodes>
          <leafValues>
            -3.3535939455032349e-01 6.5585339069366455e-01</leafValues></_>
        <_>
          <internalNodes>
            0 -1 18 -9.7854398190975189e-03</internalNodes>
          <leafValues>
            5.5448484420776367e-01 -4.7816431522369385e-01</leafValues></_>
        <_>
          <internalNodes>
            0 -1 57 -1.9642326515167952e-04</internalNodes>
          <leafValues>
            -1. 2.2420506179332733e-01</leafValues></_>
        <_>
          <internalNodes>
            0 -1 58 5.1192013779655099e-04</internalNodes>
          <leafValues>
            1.9951952993869781e-01 -9.2124569416046143e-01</leafValues></_></weakClassifiers></_></stages>
  <features>
    <_>
      <rects>
        <_>
          0 0 1 18 -1.</_>
        <_>
          0 9 1 9 2.</_></rects>
      <tilted>0</tilted></_>
    <_>
      <rects>
        <_>
          0 0 12 15 -1.</_>
        <_>
          6 0 6 15 2.</_></rects>
      <tilted>0</tilted></_>
    <_>
      <rects>
        <_>
          0 0 24 17 -1.</_>
        <_>
          8 0 8 17 3.</_></rects>
      <tilted>0</tilted></_>
    <_>
      <rects>
        <_>
          0 0 24 18 -1.</_>
        <_>
          8 0 8 18 3.</_></rects>
      <tilted>0</tilted></_>
    <_>
      <rects>
        <_>
          0 0 24 24 -1.</_>
        <_>
          0 8 24 8 3.</_></rects>
      <tilted>0</tilted></_>
    <_>
      <rects>
        <_>
          0 1 1 18 -1.</_>
        <_>
          0 10 1 9 2.</_></rects>
      <tilted>0</tilted></_>
    <_>
      <rects>
        <_>
          0 2 16 21 -1.</_>
        <_>
          8 2 8 21 2.</_></rects>
      <tilted>0</tilted></_>
    <_>
      <rects>
        <_>
          0 6 10 16 -1.</_>
        <_>
          5 6 5 16 2.</_></rects>
      <tilted>0</tilted></_>
    <_>
      <rects>
        <_>
          0 7 24 10 -1.</_>
        <_>
          8 7 8 10 3.</_></rects>
      <tilted>0</tilted></_>
    <_>
      <rects>
        <_>
          0 10 8 14 -1.</_>
        <_>
          0 10 4 7 2.</_>
        <_>
          4 17 4 7 2.</_></rects>
      <tilted>0</tilted></_>
    <_>
      <rects>
        <_>
          0 23 10 1 -1.</_>
        <_>
          5 23 5 1 2.</_></rects>
      <tilted>0</tilted></_>
    <_>
      <rects>
        <_>
          1 0 10 12 -1.</_>
        <_>
          1 0 5 6 2.</_>
        <_>
          6 6 5 6 2.</_></rects>
      <tilted>0</tilted></_>
    <_>
      <rects>
        <_>
          1 8 9 6 -1.</_>
        <_>
          1 10 9 2 3.</_></rects>
      <tilted>0</tilted></_>
    <_>
      <rects>
        <_>
          1 10 6 9 -1.</_>
        <_>
          1 13 6 3 3.</_></rects>
      <tilted>0</tilted></_>
    <_>
      <rects>
        <_>
          1 10 10 3 -1.</_>
        <_>
          1 11 10 1 3.</_></rects>
      <tilted>0</tilted></_>
    <_>
      <rects>
        <_>
          1 22 12 2 -1.</_>
        <_>
          5 22 4 2 3.</_></rects>
      <tilted>0</tilted></_>
    <_>
      <rects>
        <_>
          2 0 8 24 -1.</_>
        <_>
          6 0 4 24 2.</_></rects>
      <tilted>0</tilted></_>
    <_>
      <rects>
        <_>
          2 6 6 8 -1.</_>
        <_>
          4 6 2 8 3.</_></rects>
      <tilted>0</tilted></_>
    <_>
      <rects>
        <_>
          2 8 8 10 -1.</_>
        <_>
          2 8 4 5 2.</_>
        <_>
          6 13 4 5 2.</_></rects>
      <tilted>0</tilted></_>
    <_>
      <rects>
        <_>
          2 9 5 9 -1.</_>
        <_>
          2 12 5 3 3.</_></rects>
      <tilted>0</tilted></_>
    <_>
      <rects>
        <_>
          2 11 7 2 -1.</_>
        <_>
          2 12 7 1 2.</_></rects>
      <tilted>0</tilted></_>
    <_>
      <rects>
        <_>
          3 0 11 9 -1.</_>
        <_>
          3 3 11 3 3.</_></rects>
      <tilted>0</tilted></_>
    <_>
      <rects>
        <_>
          3 23 21 1 -1.</_>
        <_>
          10 23 7 1 3.</_></rects>
      <tilted>0</tilted></_>
    <_>
      <rects>
        <_>
          4 0 20 12 -1.</_>
        <_>
          14 0 10 12 2.</_></rects>
      <tilted>0</tilted></_>
    <_>
      <rects>
        <_>
          4 3 1 12 -1.</_>
        <_>
          4 7 1 4 3.</_></rects>
      <tilted>0</tilted></_>
    <_>
      <rects>
        <_>
          4 11 2 6 -1.</_>
        <_>
          4 13 2 2 3.</_></rects>
      <tilted>0</tilted></_>
    <_>
      <rects>
        <_>
          4 23 18 1 -1.</_>
        <_>
          10 23 6 1 3.</_></rects>
      <tilted>0</tilted></_>
    <_>
      <rects>
        <_>
          5 14 4 6 -1.</_>
        <_>
          5 16 4 2 3.</_></rects>
      <tilted>0</tilted></_>
    <_>
      <rects>
        <_>
          6 0 14 1 -1.</_>
        <_>
          13 0 7 1 2.</_></rects>
      <tilted>0</tilted></_>
    <_>
      <rects>
        <_>
          6 0 9 24 -1.</_>
        <_>
          6 8 9 8 3.</_></rects>
      <tilted>0</tilted></_>
    <_>
      <rects>
        <_>
          6 0 11 24 -1.</_>
        <_>
          6 8 11 8 3.</_></rects>
      <tilted>0</tilted></_>
    <_>
      <rects>
        <_>
          6 0 12 24 -1.</_>
        <_>
          6 8 12 8 3.</_></rects>
      <tilted>0</tilted></_>
    <_>
      <rects>
        <_>
          6 4 9 6 -1.</_>
        <_>
          6 7 9 3 2.</_></rects>
      <tilted>0</tilted></_>
    <_>
      <rects>
        <_>
          7 3 4 4 -1.</_>
        <_>
          7 3 2 2 2.</_>
        <_>
          9 5 2 2 2.</_></rects>
      <tilted>0</tilted></_>
    <_>
      <rects>
        <_>
          7 5 11 4 -1.</_>
        <_>
          7 7 11 2 2.</_></rects>
      <tilted>0</tilted></_>
    <_>
      <rects>
        <_>
          7 14 2 9 -1.</_>
        <_>
          7 17 2 3 3.</_></rects>
      <tilted>0</tilted></_>
    <_>
      <rects>
        <_>
          8 0 7 14 -1.</_>
        <_>
          8 7 7 7 2.</_></rects>
      <tilted>0</tilted></_>
    <_>
      <rects>
        <_>
          8 0 8 24 -1.</_>
        <_>
          8 8 8 8 3.</_></rects>
      <tilted>0</tilted></_>
    <_>
      <rects>
        <_>
          8 2 6 12 -1.</_>
        <_>
          10 2 2 12 3.</_></rects>
      <tilted>0</tilted></_>
    <_>
      <rects>
        <_>
          8 10 4 1 -1.</_>
        <_>
          10 10 2 1 2.</_></rects>
      <tilted>0</tilted></_>
    <_>
      <rects>
        <_>
          8 12 3 2 -1.</_>
        <_>
          9 12 1 2 3.</_></rects>
      <tilted>0</tilted></_>
    <_>
      <rects>
        <_>
          8 12 4 3 -1.</_>
        <_>
          8 13 4 1 3.</_></rects>
      <tilted>0</tilted></_>
    <_>
      <rects>
        <_>
          8 14 9 10 -1.</_>
        <_>
          8 19 9 5 2.</_></rects>
      <tilted>0</tilted></_>
    <_>
      <rects>
        <_>
          8 14 16 10 -1.</_>
        <_>
          8 19 16 5 2.</_></rects>
      <tilted>0</tilted></_>
    <_>
      <rects>
        <_>
          9 0 11 14 -1.</_>
        <_>
          9 7 11 7 2.</_></rects>
      <tilted>0</tilted></_>
    <_>
      <rects>
        <_>
          9 2 8 10 -1.</_>
        <_>
          9 7 8 5 2.</_></rects>
      <tilted>0</tilted></_>
    <_>
      <rects>
        <_>
          9 9 3 4 -1.</_>
        <_>
          9 11 3 2 2.</_></rects>
      <tilted>0</tilted></_>
    <_>
      <rects>
        <_>
          9 12 1 2 -1.</_>
        <_>
          9 13 1 1 2.</_></rects>
      <tilted>0</tilted></_>
    <_>
      <rects>
        <_>
          9 12 3 3 -1.</_>
        <_>
          10 12 1 3 3.</_></rects>
      <tilted>0</tilted></_>
    <_>
      <rects>
        <_>
          10 1 6 12 -1.</_>
        <_>
          10 5 6 4 3.</_></rects>
      <tilted>0</tilted></_>
    <_>
      <rects>
        <_>
          10 12 4 1 -1.</_>
        <_>
          12 12 2 1 2.</_></rects>
      <tilted>0</tilted></_>
    <_>
      <rects>
        <_>
          11 21 3 2 -1.</_>
        <_>
          11 22 3 1 2.</_></rects>
      <tilted>0</tilted></_>
    <_>
      <rects>
        <_>
          12 7 12 11 -1.</_>
        <_>
          18 7 6 11 2.</_></rects>
      <tilted>0</tilted></_>
    <_>
      <rects>
        <_>
          13 4 3 6 -1.</_>
        <_>
          13 6 3 2 3.</_></rects>
      <tilted>0</tilted></_>
    <_>
      <rects>
        <_>
          14 11 10 12 -1.</_>
        <_>
          19 11 5 12 2.</_></rects>
      <tilted>0</tilted></_>
    <_>
      <rects>
        <_>
          16 18 2 4 -1.</_>
        <_>
          16 20 2 2 2.</_></rects>
      <tilted>0</tilted></_>
    <_>
      <rects>
        <_>
          16 18 8 6 -1.</_>
        <_>
          16 18 4 3 2.</_>
        <_>
          20 21 4 3 2.</_></rects>
      <tilted>0</tilted></_>
    <_>
      <rects>
        <_>
          18 21 4 2 -1.</_>
        <_>
          18 21 2 1 2.</_>
        <_>
          20 22 2 1 2.</_></rects>
      <tilted>0</tilted></_>
    <_>
      <rects>
        <_>
          22 4 1 6 -1.</_>
        <_>
          22 7 1 3 2.</_></rects>
      <tilted>0</tilted></_>
    <_>
      <rects>
        <_>
          22 18 1 6 -1.</_>
        <_>
          22 21 1 3 2.</_></rects>
      <tilted>0</tilted></_>
    <_>
      <rects>
        <_>
          23 6 1 18 -1.</_>
        <_>
          23 15 1 9 2.</_></rects>
      <tilted>0</tilted></_>
    <_>
      <rects>
        <_>
          23 8 1 16 -1.</_>
        <_>
          23 16 1 8 2.</_></rects>
      <tilted>0</tilted></_>
    <_>
      <rects>
        <_>
          23 10 1 14 -1.</_>
        <_>
          23 17 1 7 2.</_></rects>
      <tilted>0</tilted></_>
    <_>
      <rects>
        <_>
          23 14 1 10 -1.</_>
        <_>
          23 19 1 5 2.</_></rects>
      <tilted>0</tilted></_></features></cascade>
</opencv_storage>
