<?xml version="1.0"?>
<opencv_storage>
<cascade>
  <stageType>BOOST</stageType>
  <featureType>HAAR</featureType>
  <height>24</height>
  <width>24</width>
  <stageParams>
    <boostType>GAB</boostType>
    <minHitRate>9.9500000476837158e-01</minHitRate>
    <maxFalseAlarm>5.0000000000000000e-01</maxFalseAlarm>
    <weightTrimRate>9.4999998807907104e-01</weightTrimRate>
    <maxDepth>1</maxDepth>
    <maxWeakCount>100</maxWeakCount></stageParams>
  <featureParams>
    <maxCatCount>0</maxCatCount>
    <featSize>1</featSize>
    <mode>BASIC</mode></featureParams>
  <stageNum>3</stageNum>
  <stages>
    <!-- stage 0 -->
    <_>
      <maxWeakCount>2</maxWeakCount>
      <stageThreshold>0.</stageThreshold>
      <weakClassifiers>
        <_>
          <internalNodes>
            0 -1 0 -1.2542098760604858e-01</internalNodes>
          <leafValues>
            1. -9.9800199270248413e-01</leafValues></_>
        <_>
          <internalNodes>
            0 -1 1 -1.6404628753662109e-01</internalNodes>
          <leafValues>
            1. -1.</leafValues></_></weakClassifiers></_>
    <!-- stage 1 -->
    <_>
      <maxWeakCount>3</maxWeakCount>
      <stageThreshold>-1.6050887107849121e+00</stageThreshold>
      <weakClassifiers>
        <_>
          <internalNodes>
            0 -1 2 -5.9200666844844818e-02</internalNodes>
          <leafValues>
            6.0000002384185791e-01 -9.9401199817657471e-01</leafValues></_>
        <_>
          <internalNodes>
            0 -1 5 -2.1377734839916229e-02</internalNodes>
          <leafValues>
            3.3568894863128662e-01 -9.7667926549911499e-01</leafValues></_>
        <_>
          <internalNodes>
            0 -1 7 -7.1659311652183533e-02</internalNodes>
          <leafValues>
            7.5567281246185303e-01 -9.4676560163497925e-01</leafValues></_></weakClassifiers></_>
    <!-- stage 2 -->
    <_>
      <maxWeakCount>3</maxWeakCount>
      <stageThreshold>-1.2586376667022705e+00</stageThreshold>
      <weakClassifiers>
        <_>
          <internalNodes>
            0 -1 3 6.3594914972782135e-02</internalNodes>
          <leafValues>
            -9.9004977941513062e-01 1.</leafValues></_>
        <_>
          <internalNodes>
            0 -1 4 -6.7733544856309891e-03</internalNodes>
          <leafValues>
            6.8908363580703735e-01 -9.7132682800292969e-01</leafValues></_>
        <_>
          <internalNodes>
            0 -1 6 6.7752283066511154e-03</internalNodes>
          <leafValues>
            -9.5405077934265137e-01 7.0273888111114502e-01</leafValues></_></weakClassifiers></_></stages>
  <features>
    <_>
      <rects>
        <_>
          0 12 24 2 -1.</_>
        <_>
          8 12 8 2 3.</_></rects>
      <tilted>0</tilted></_>
    <_>
      <rects>
        <_>
          0 14 21 3 -1.</_>
        <_>
          7 14 7 3 3.</_></rects>
      <tilted>0</tilted></_>
    <_>
      <rects>
        <_>
          3 8 18 1 -1.</_>
        <_>
          9 8 6 1 3.</_></rects>
      <tilted>0</tilted></_>
    <_>
      <rects>
        <_>
          5 8 8 8 -1.</_>
        <_>
          5 8 4 4 2.</_>
        <_>
          9 12 4 4 2.</_></rects>
      <tilted>0</tilted></_>
    <_>
      <rects>
        <_>
          8 17 4 1 -1.</_>
        <_>
          10 17 2 1 2.</_></rects>
      <tilted>0</tilted></_>
    <_>
      <rects>
        <_>
          9 0 1 10 -1.</_>
        <_>
          9 5 1 5 2.</_></rects>
      <tilted>0</tilted></_>
    <_>
      <rects>
        <_>
          9 16 1 4 -1.</_>
        <_>
          9 18 1 2 2.</_></rects>
      <tilted>0</tilted></_>
    <_>
      <rects>
        <_>
          14 0 1 24 -1.</_>
        <_>
          14 8 1 8 3.</_></rects>
      <tilted>0</tilted></_></features></cascade>
</opencv_storage>
