<?xml version="1.0"?>
<opencv_storage>
<stage11>
  <maxWeakCount>7</maxWeakCount>
  <stageThreshold>-1.4271757602691650e+00</stageThreshold>
  <weakClassifiers>
    <_>
      <internalNodes>
        0 -1 52058 -1.2282745912671089e-02</internalNodes>
      <leafValues>
        2.5581395626068115e-01 -8.4788733720779419e-01</leafValues></_>
    <_>
      <internalNodes>
        0 -1 82959 -2.4135652929544449e-03</internalNodes>
      <leafValues>
        5.0934809446334839e-01 -5.2812653779983521e-01</leafValues></_>
    <_>
      <internalNodes>
        0 -1 162051 -5.5782182607799768e-04</internalNodes>
      <leafValues>
        -8.4701824188232422e-01 1.9982326030731201e-01</leafValues></_>
    <_>
      <internalNodes>
        0 -1 96429 2.7665111701935530e-04</internalNodes>
      <leafValues>
        2.1865734457969666e-01 -7.6011705398559570e-01</leafValues></_>
    <_>
      <internalNodes>
        0 -1 96429 -3.8846657844260335e-05</internalNodes>
      <leafValues>
        -7.7267390489578247e-01 2.4927379190921783e-01</leafValues></_>
    <_>
      <internalNodes>
        0 -1 96545 -8.6749729234725237e-05</internalNodes>
      <leafValues>
        -8.5406297445297241e-01 1.7691880464553833e-01</leafValues></_>
    <_>
      <internalNodes>
        0 -1 148052 -4.4284599425736815e-05</internalNodes>
      <leafValues>
        1.5100644528865814e-01 -9.7932839393615723e-01</leafValues></_></weakClassifiers></stage11>
</opencv_storage>
