<?xml version="1.0"?>
<opencv_storage>
<stage12>
  <maxWeakCount>6</maxWeakCount>
  <stageThreshold>-1.9938989877700806e+00</stageThreshold>
  <weakClassifiers>
    <_>
      <internalNodes>
        0 -1 69013 -1.7573991790413857e-02</internalNodes>
      <leafValues>
        1. -8.3823531866073608e-01</leafValues></_>
    <_>
      <internalNodes>
        0 -1 20674 -2.8116083703935146e-03</internalNodes>
      <leafValues>
        4.0343508124351501e-01 -5.8555006980895996e-01</leafValues></_>
    <_>
      <internalNodes>
        0 -1 104743 3.8246569602051750e-05</internalNodes>
      <leafValues>
        2.8612613677978516e-01 -7.3755645751953125e-01</leafValues></_>
    <_>
      <internalNodes>
        0 -1 103707 -1.6299130220431834e-04</internalNodes>
      <leafValues>
        -8.5928410291671753e-01 2.0751665532588959e-01</leafValues></_>
    <_>
      <internalNodes>
        0 -1 38713 -6.1163596808910370e-02</internalNodes>
      <leafValues>
        6.1286264657974243e-01 -3.5303622484207153e-01</leafValues></_>
    <_>
      <internalNodes>
        0 -1 104754 3.1297220266424119e-04</internalNodes>
      <leafValues>
        3.1537193059921265e-01 -7.1072024106979370e-01</leafValues></_></weakClassifiers></stage12>
</opencv_storage>
