<?xml version="1.0"?>
<opencv_storage>
<stage5>
  <maxWeakCount>5</maxWeakCount>
  <stageThreshold>-1.4928022623062134e+00</stageThreshold>
  <weakClassifiers>
    <_>
      <internalNodes>
        0 -1 129923 -1.5221463516354561e-02</internalNodes>
      <leafValues>
        1.2987012974917889e-02 -8.6614936590194702e-01</leafValues></_>
    <_>
      <internalNodes>
        0 -1 162303 -1.5276562189683318e-03</internalNodes>
      <leafValues>
        -9.7287034988403320e-01 2.0224226173013449e-03</leafValues></_>
    <_>
      <internalNodes>
        0 -1 49472 -1.6248596366494894e-03</internalNodes>
      <leafValues>
        -1. 1.5407894551753998e-01</leafValues></_>
    <_>
      <internalNodes>
        0 -1 60431 3.0317450873553753e-03</internalNodes>
      <leafValues>
        2.9641303420066833e-01 -9.5301777124404907e-01</leafValues></_>
    <_>
      <internalNodes>
        0 -1 60431 -8.6113694123923779e-04</internalNodes>
      <leafValues>
        -9.4898271560668945e-01 1.7026355862617493e-01</leafValues></_></weakClassifiers></stage5>
</opencv_storage>
